%YAML:1.0
---
opencv_ml_knn:
   format: 3
   is_classifier: 1
   default_k: 2
   samples: !!opencv-matrix
      rows: 183
      cols: 4
      dt: f
      data: [ 151., 207., 0., 180., 187., 269., 49., 205., 103., 202.,
          124., 239., 113., 263., 124., 239., 135., 189., 145., 153.,
          158., 245., 124., 225., 169., 233., 125., 132., 233., 271.,
          122., 74., 229., 269., 30., 139., 157., 297., 97., 217., 141.,
          193., 149., 111., 127., 183., 237., 239., 129., 190., 124.,
          239., 133., 195., 101., 205., 119., 202., 116., 237., 161.,
          219., 140., 89., 117., 200., 124., 239., 279., 281., 135., 66.,
          183., 319., 31., 239., 115., 181., 97., 233., 115., 303., 124.,
          239., 161., 214., 85., 175., 179., 305., 220., 233., 199.,
          295., 120., 239., 55., 111., 193., 235., 123., 179., 179.,
          239., 125., 191., 163., 239., 165., 229., 84., 239., 121.,
          181., 165., 239., 121., 319., 15., 239., 149., 213., 124.,
          239., 117., 177., 197., 239., 113., 191., 101., 239., 201.,
          239., 79., 157., 127., 175., 115., 117., 239., 300., 115.,
          151., 131., 197., 97., 239., 131., 191., 201., 237., 119.,
          167., 115., 116., 117., 305., 115., 239., 235., 309., 115.,
          151., 127., 189., 169., 239., 143., 145., 42., 2., 193., 301.,
          77., 237., 127., 200., 116., 239., 163., 221., 168., 205.,
          182., 275., 0., 33., 115., 183., 192., 173., 129., 273., 55.,
          221., 109., 173., 199., 239., 131., 295., 115., 239., 149.,
          296., 44., 185., 161., 306., 115., 171., 123., 193., 163.,
          239., 137., 309., 175., 239., 127., 193., 155., 239., 255.,
          311., 179., 239., 131., 183., 171., 239., 157., 235., 63.,
          179., 127., 178., 191., 239., 115., 201., 85., 235., 121.,
          185., 206., 239., 141., 197., 103., 195., 145., 205., 169.,
          239., 139., 203., 99., 239., 113., 319., 118., 239., 183.,
          249., 65., 233., 117., 181., 206., 239., 143., 183., 107.,
          155., 125., 182., 171., 239., 115., 169., 237., 239., 119.,
          204., 124., 239., 183., 239., 121., 109., 117., 204., 124.,
          239., 153., 209., 106., 206., 249., 279., 68., 24., 91., 149.,
          237., 239., 87., 148., 175., 239., 90., 151., 237., 239., 141.,
          313., 0., 239., 83., 129., 101., 137., 0., 319., 0., 209.,
          101., 257., 119., 239., 57., 295., 127., 239., 117., 305.,
          143., 165., 59., 155., 131., 227., 49., 92., 159., 162., 81.,
          319., 73., 239., 41., 135., 151., 227., 130., 188., 199., 239.,
          17., 247., 125., 231., 55., 319., 99., 239., 57., 319., 81.,
          239., 17., 118., 163., 180., 213., 279., 136., 139., 27., 285.,
          129., 235., 51., 317., 81., 239., 25., 305., 159., 239., 129.,
          227., 118., 213., 35., 269., 123., 237., 121., 189., 173.,
          239., 113., 167., 201., 237., 197., 251., 136., 195., 205.,
          315., 59., 239., 123., 175., 236., 239., 251., 283., 79., 27.,
          255., 283., 82., 45., 249., 281., 40., 18., 299., 319., 144.,
          98., 245., 277., 63., 43., 243., 281., 76., 22., 121., 191.,
          187., 239., 131., 191., 175., 239., 117., 194., 119., 239.,
          115., 194., 119., 239., 131., 185., 107., 153., 125., 171.,
          175., 239., 223., 309., 57., 183., 251., 251., 115., 32., 229.,
          317., 161., 185., 133., 187., 193., 239., 142., 200., 191.,
          239., 155., 199., 170., 173., 119., 185., 173., 239., 187.,
          317., 41., 161., 121., 183., 169., 239., 187., 219., 158., 68.,
          123., 185., 193., 239., 137., 139., 56., 2., 169., 261., 43.,
          185., 129., 189., 237., 239., 227., 229., 146., 106., 129.,
          181., 236., 239., 145., 294., 99., 201., 241., 284., 177.,
          183., 119., 176., 173., 239., 50., 88., 237., 237., 119., 185.,
          185., 239., 161., 235., 124., 75., 169., 257., 73., 179., 255.,
          283., 50., 24., 125., 185., 236., 239., 127., 179., 236., 239.,
          161., 209., 87., 104., 153., 315., 9., 169., 167., 239., 194.,
          197., 119., 183., 169., 239., 0., 39., 57., 2., 120., 157.,
          175., 176., 247., 249., 86., 2., 187., 257., 45., 207., 245.,
          283., 64., 29., 243., 319., 46., 136., 247., 319., 58., 136.,
          121., 185., 236., 239., 117., 183., 236., 239., 123., 185.,
          165., 239., 119., 188., 147., 239., 175., 225., 125., 91.,
          121., 181., 237., 239., 173., 175., 177., 143., 165., 241.,
          72., 181., 145., 191., 115., 175., 113., 173., 236., 239.,
          119., 181., 173., 239., 113., 175., 199., 239., 117., 177.,
          197., 239., 117., 317., 3., 239., 159., 223., 95., 155., 193.,
          241., 125., 165., 105., 157., 183., 239., 96., 190., 174.,
          239., 117., 183., 123., 229., 115., 173., 165., 239., 157.,
          219., 1., 116., 117., 175., 237., 239., 187., 235., 124., 82.,
          160., 313., 93., 185., 189., 303., 61., 223., 123., 197., 117.,
          239., 215., 315., 65., 141., 125., 183., 237., 239., 127.,
          187., 199., 239. ]
   responses: !!opencv-matrix
      rows: 183
      cols: 1
      dt: f
      data: [ 3., 3., 2., 2., 3., 1., 3., 3., 3., 1., 3., 2., 2., 3., 2.,
          3., 2., 0., 0., 3., 2., 3., 1., 2., 0., 2., 2., 3., 2., 0., 0.,
          2., 3., 3., 3., 3., 3., 2., 3., 2., 2., 2., 1., 3., 2., 3., 0.,
          3., 3., 2., 2., 3., 3., 2., 1., 2., 2., 2., 3., 2., 3., 2., 3.,
          2., 3., 2., 3., 2., 3., 2., 2., 2., 3., 2., 3., 0., 2., 2., 2.,
          0., 3., 0., 0., 0., 0., 0., 0., 0., 0., 2., 0., 0., 0., 0., 0.,
          0., 0., 0., 3., 0., 2., 2., 3., 1., 2., 0., 0., 0., 0., 0., 0.,
          2., 2., 2., 2., 3., 2., 3., 0., 3., 2., 2., 3., 2., 0., 2., 3.,
          2., 1., 3., 2., 3., 2., 3., 0., 2., 0., 2., 0., 3., 0., 2., 2.,
          3., 0., 3., 2., 0., 3., 0., 3., 0., 0., 0., 2., 2., 2., 2., 3.,
          2., 3., 3., 3., 2., 2., 2., 2., 0., 2., 3., 2., 2., 3., 2., 3.,
          2., 3., 1., 2., 2., 0., 2., 2. ]
