%YAML:1.0
---
opencv_ml_knn:
   format: 3
   is_classifier: 1
   default_k: 2
   samples: !!opencv-matrix
      rows: 473
      cols: 4
      dt: f
      data: [ 151., 207., 0., 180., 187., 269., 49., 205., 103., 202.,
          124., 239., 113., 263., 124., 239., 135., 189., 145., 153.,
          158., 245., 124., 225., 169., 233., 125., 132., 233., 271.,
          122., 74., 229., 269., 30., 139., 157., 297., 97., 217., 141.,
          193., 149., 111., 127., 183., 237., 239., 129., 190., 124.,
          239., 133., 195., 101., 205., 119., 202., 116., 237., 161.,
          219., 140., 89., 117., 200., 124., 239., 279., 281., 135., 66.,
          183., 319., 31., 239., 115., 181., 97., 233., 115., 303., 124.,
          239., 161., 214., 85., 175., 179., 305., 220., 233., 199.,
          295., 120., 239., 55., 111., 193., 235., 123., 179., 179.,
          239., 125., 191., 163., 239., 165., 229., 84., 239., 121.,
          181., 165., 239., 121., 319., 15., 239., 149., 213., 124.,
          239., 117., 177., 197., 239., 113., 191., 101., 239., 201.,
          239., 79., 157., 127., 175., 115., 117., 239., 300., 115.,
          151., 131., 197., 97., 239., 131., 191., 201., 237., 119.,
          167., 115., 116., 117., 305., 115., 239., 235., 309., 115.,
          151., 127., 189., 169., 239., 143., 145., 42., 2., 193., 301.,
          77., 237., 127., 200., 116., 239., 163., 221., 168., 205.,
          182., 275., 0., 33., 115., 183., 192., 173., 129., 273., 55.,
          221., 109., 173., 199., 239., 131., 295., 115., 239., 149.,
          296., 44., 185., 161., 306., 115., 171., 123., 193., 163.,
          239., 137., 309., 175., 239., 127., 193., 155., 239., 255.,
          311., 179., 239., 131., 183., 171., 239., 157., 235., 63.,
          179., 127., 178., 191., 239., 115., 201., 85., 235., 121.,
          185., 206., 239., 141., 197., 103., 195., 145., 205., 169.,
          239., 139., 203., 99., 239., 113., 319., 118., 239., 183.,
          249., 65., 233., 117., 181., 206., 239., 143., 183., 107.,
          155., 125., 182., 171., 239., 115., 169., 237., 239., 119.,
          204., 124., 239., 183., 239., 121., 109., 117., 204., 124.,
          239., 153., 209., 106., 206., 249., 279., 68., 24., 91., 149.,
          237., 239., 87., 148., 175., 239., 90., 151., 237., 239., 141.,
          313., 0., 239., 83., 129., 101., 137., 0., 319., 0., 209.,
          101., 257., 119., 239., 57., 295., 127., 239., 117., 305.,
          143., 165., 59., 155., 131., 227., 49., 92., 159., 162., 81.,
          319., 73., 239., 41., 135., 151., 227., 130., 188., 199., 239.,
          17., 247., 125., 231., 55., 319., 99., 239., 57., 319., 81.,
          239., 17., 118., 163., 180., 213., 279., 136., 139., 27., 285.,
          129., 235., 51., 317., 81., 239., 25., 305., 159., 239., 129.,
          227., 118., 213., 35., 269., 123., 237., 121., 189., 173.,
          239., 113., 167., 201., 237., 197., 251., 136., 195., 205.,
          315., 59., 239., 123., 175., 236., 239., 251., 283., 79., 27.,
          255., 283., 82., 45., 249., 281., 40., 18., 299., 319., 144.,
          98., 245., 277., 63., 43., 243., 281., 76., 22., 121., 191.,
          187., 239., 131., 191., 175., 239., 117., 194., 119., 239.,
          115., 194., 119., 239., 131., 185., 107., 153., 125., 171.,
          175., 239., 223., 309., 57., 183., 251., 251., 115., 32., 229.,
          317., 161., 185., 133., 187., 193., 239., 142., 200., 191.,
          239., 155., 199., 170., 173., 119., 185., 173., 239., 187.,
          317., 41., 161., 121., 183., 169., 239., 187., 219., 158., 68.,
          123., 185., 193., 239., 137., 139., 56., 2., 169., 261., 43.,
          185., 129., 189., 237., 239., 227., 229., 146., 106., 129.,
          181., 236., 239., 145., 294., 99., 201., 241., 284., 177.,
          183., 119., 176., 173., 239., 50., 88., 237., 237., 119., 185.,
          185., 239., 161., 235., 124., 75., 169., 257., 73., 179., 255.,
          283., 50., 24., 125., 185., 236., 239., 127., 179., 236., 239.,
          161., 209., 87., 104., 153., 315., 9., 169., 167., 239., 194.,
          197., 119., 183., 169., 239., 0., 39., 57., 2., 120., 157.,
          175., 176., 247., 249., 86., 2., 187., 257., 45., 207., 245.,
          283., 64., 29., 243., 319., 46., 136., 247., 319., 58., 136.,
          121., 185., 236., 239., 117., 183., 236., 239., 123., 185.,
          165., 239., 119., 188., 147., 239., 175., 225., 125., 91.,
          121., 181., 237., 239., 173., 175., 177., 143., 165., 241.,
          72., 181., 145., 191., 115., 175., 113., 173., 236., 239.,
          119., 181., 173., 239., 113., 175., 199., 239., 117., 177.,
          197., 239., 117., 317., 3., 239., 159., 223., 95., 155., 193.,
          241., 125., 165., 105., 157., 183., 239., 96., 190., 174.,
          239., 117., 183., 123., 229., 115., 173., 165., 239., 157.,
          219., 1., 116., 117., 175., 237., 239., 187., 235., 124., 82.,
          160., 313., 93., 185., 189., 303., 61., 223., 123., 197., 117.,
          239., 215., 315., 65., 141., 125., 183., 237., 239., 127.,
          187., 199., 239., 271., 311., 137., 219., 141., 143., 149.,
          223., 179., 218., 141., 141., 249., 303., 171., 230., 143.,
          201., 166., 226., 161., 319., 0., 231., 176., 235., 1., 169.,
          205., 289., 23., 193., 287., 319., 19., 235., 267., 315., 9.,
          227., 147., 211., 160., 225., 269., 269., 18., 60., 243., 283.,
          0., 74., 1., 185., 213., 239., 1., 197., 213., 239., 207.,
          231., 93., 237., 137., 319., 0., 149., 203., 243., 59., 131.,
          65., 119., 155., 155., 263., 319., 37., 128., 145., 316., 128.,
          225., 175., 221., 7., 137., 181., 235., 61., 167., 150., 209.,
          137., 137., 185., 241., 76., 142., 153., 211., 141., 227.,
          155., 315., 0., 235., 141., 143., 176., 221., 185., 229., 71.,
          127., 149., 197., 180., 224., 139., 237., 59., 143., 161.,
          213., 137., 225., 1., 253., 123., 239., 211., 211., 189., 224.,
          239., 314., 13., 15., 199., 305., 3., 121., 159., 315., 0.,
          233., 231., 279., 1., 85., 137., 319., 0., 239., 99., 311., 0.,
          239., 201., 307., 35., 195., 219., 295., 13., 95., 161., 315.,
          65., 237., 173., 317., 11., 231., 175., 221., 81., 137., 77.,
          256., 141., 221., 191., 211., 95., 217., 1., 214., 209., 239.,
          147., 317., 0., 239., 159., 319., 0., 235., 175., 229., 73.,
          139., 181., 269., 75., 127., 180., 223., 67., 139., 193., 245.,
          0., 151., 253., 255., 53., 125., 121., 301., 9., 239., 153.,
          207., 65., 124., 149., 211., 151., 225., 315., 317., 1., 65.,
          255., 313., 1., 83., 268., 310., 69., 69., 235., 313., 47.,
          113., 293., 313., 1., 87., 55., 209., 139., 221., 55., 208.,
          139., 221., 61., 178., 175., 219., 145., 211., 145., 223.,
          151., 153., 171., 225., 143., 207., 136., 226., 271., 319.,
          16., 81., 153., 212., 173., 223., 131., 261., 56., 165., 145.,
          147., 135., 173., 265., 317., 39., 105., 201., 299., 9., 127.,
          207., 271., 27., 131., 196., 252., 36., 146., 148., 210., 138.,
          226., 136., 204., 104., 232., 158., 214., 154., 228., 234.,
          302., 58., 126., 148., 196., 142., 226., 144., 264., 36., 160.,
          144., 206., 172., 226., 148., 208., 134., 228., 158., 212.,
          82., 136., 278., 318., 0., 78., 186., 228., 50., 138., 208.,
          254., 40., 124., 184., 236., 160., 210., 262., 310., 148.,
          218., 119., 319., 8., 238., 230., 326., 0., 166., 146., 324.,
          0., 220., 282., 316., 0., 78., 240., 302., 86., 214., 32.,
          216., 218., 238., 184., 266., 40., 140., 152., 216., 178.,
          228., 242., 298., 0., 66., 252., 298., 0., 64., 146., 214.,
          120., 230., 232., 300., 166., 234., 154., 212., 130., 228.,
          150., 218., 134., 228., 152., 206., 156., 226., 224., 260.,
          44., 128., 76., 134., 126., 180., 273., 321., 0., 60., 162.,
          226., 140., 204., 150., 328., 50., 238., 264., 306., 142.,
          216., 258., 302., 142., 216., 148., 208., 152., 226., 96.,
          224., 112., 136., 106., 172., 92., 136., 142., 210., 126.,
          230., 144., 210., 128., 228., 184., 258., 12., 146., 254.,
          314., 0., 84., 278., 316., 34., 114., 186., 238., 48., 142.,
          186., 238., 48., 142., 258., 300., 156., 220., 284., 318., 24.,
          148., 180., 230., 56., 140., 152., 206., 156., 210., 164.,
          212., 82., 136., 146., 202., 176., 224., 208., 270., 42., 120.,
          148., 204., 148., 226., 146., 210., 162., 226., 248., 286., 0.,
          62., 104., 162., 92., 136., 200., 308., 28., 142., 252., 310.,
          134., 218., 278., 312., 114., 192., 192., 258., 26., 140.,
          218., 294., 46., 114., 86., 160., 96., 150., 204., 318., 0.,
          204., 240., 310., 0., 238., 208., 280., 162., 200., 22., 222.,
          218., 238., 203., 319., 110., 148., 192., 286., 118., 152.,
          120., 308., 46., 238., 243., 321., 0., 50., 96., 220., 112.,
          136., 274., 308., 130., 214., 266., 304., 128., 218., 232.,
          298., 0., 88., 106., 180., 90., 134., 180., 272., 22., 136.,
          166., 216., 84., 138., 146., 212., 126., 230., 150., 208.,
          128., 226., 136., 314., 0., 234., 232., 276., 0., 84., 266.,
          296., 0., 78., 268., 312., 0., 72., 280., 306., 0., 88., 242.,
          310., 0., 68., 252., 308., 0., 56., 244., 316., 138., 176.,
          192., 240., 80., 138., 254., 314., 48., 92., 94., 300., 4.,
          238., 150., 210., 154., 228., 146., 208., 148., 228., 188.,
          230., 60., 128., 108., 300., 2., 238., 134., 304., 6., 238.,
          190., 306., 54., 138., 106., 200., 88., 136., 108., 186., 100.,
          134., 134., 212., 12., 96., 140., 184., 14., 84., 148., 214.,
          150., 230., 160., 220., 146., 230., 140., 212., 60., 230., -1.,
          57., 0., 50., 114., 298., 0., 238., 144., 200., 164., 228.,
          226., 272., 64., 118., 184., 302., 32., 172., 160., 218., 146.,
          230., 146., 216., 58., 222., 152., 218., 118., 232., 78., 146.,
          86., 190., 146., 210., 164., 228., 178., 238., 28., 212., 144.,
          202., 112., 230., 198., 244., 34., 162., 180., 312., 144.,
          232., 152., 208., 160., 208., 2., 40., 84., 148., 2., 48., 68.,
          156., 195., 319., 86., 124., 148., 262., 92., 160., 152., 308.,
          42., 176., 176., 238., 4., 138., 188., 246., 62., 102., 182.,
          216., 38., 112., 238., 296., 110., 184., 162., 300., 2., 210.,
          98., 290., 0., 234., 192., 246., 0., 100., 268., 312., 0., 68.,
          142., 202., 126., 216., 98., 292., 14., 212., 92., 288., 0.,
          226., 128., 190., 162., 216., -2., 112., 0., 86., 112., 218.,
          14., 144., 132., 202., 104., 214., 128., 188., 94., 208., 110.,
          284., 8., 112., 180., 284., 64., 222., 122., 326., 40., 120.,
          148., 198., 122., 216., 140., 198., 116., 216., 94., 290., 2.,
          226., 90., 290., 0., 224., 86., 288., 0., 228., 150., 308.,
          42., 172., 158., 308., 34., 164., 82., 290., 0., 230., 146.,
          310., 34., 168., 116., 184., 170., 218., 158., 224., 28., 176.,
          142., 192., 152., 220., 194., 274., 18., 106., 248., 318., 18.,
          92., 246., 294., 0., 56., 158., 222., 124., 214., 204., 260.,
          64., 228., 2., 48., 4., 84., 2., 44., 0., 78., -2., 266., 0.,
          238., 164., 308., 42., 152., 22., 242., 0., 236., 232., 290.,
          72., 160., 228., 306., 52., 156., 244., 294., 84., 164., 2.,
          320., 0., 238., 226., 316., 0., 158., 220., 304., 50., 158.,
          224., 274., 78., 166., 194., 316., 74., 108., 202., 318., 0.,
          120., 150., 272., 172., 216., 217., 321., 0., 122., 214., 322.,
          0., 124., 184., 322., 72., 110., 206., 320., 0., 158., 234.,
          314., 72., 116., 146., 192., 132., 210., 226., 314., 70., 110.,
          238., 312., 78., 112., 233., 319., 0., 58., 220., 308., 76.,
          110., 136., 316., 54., 108., 170., 318., 0., 200., 170., 322.,
          0., 108., 168., 324., 0., 110., 158., 326., 0., 114., 149.,
          325., 0., 114., 92., 324., 0., 210., 151., 325., 0., 110., 88.,
          294., 0., 230., 57., 321., 0., 238., 258., 312., 58., 142.,
          111., 323., 36., 124., 118., 322., 38., 122., 206., 320., 60.,
          134., 88., 222., 66., 96., 238., 314., 0., 56., 107., 331.,
          50., 124., 238., 316., 72., 116., 34., 314., 0., 238., 134.,
          316., 0., 120., 244., 316., 80., 124., 134., 304., 0., 120.,
          60., 308., 0., 238., 146., 312., 0., 168., 204., 290., 76.,
          226., 144., 294., 18., 212., 188., 272., 46., 238., 160., 294.,
          30., 220. ]
   responses: !!opencv-matrix
      rows: 473
      cols: 1
      dt: f
      data: [ 3., 3., 2., 2., 3., 1., 3., 3., 3., 1., 3., 2., 2., 3., 2.,
          3., 2., 0., 0., 3., 2., 3., 1., 2., 0., 2., 2., 3., 2., 0., 0.,
          2., 3., 3., 3., 3., 3., 2., 3., 2., 2., 2., 1., 3., 2., 3., 0.,
          3., 3., 2., 2., 3., 3., 2., 1., 2., 2., 2., 3., 2., 3., 2., 3.,
          2., 3., 2., 3., 2., 3., 2., 2., 2., 3., 2., 3., 0., 2., 2., 2.,
          0., 3., 0., 0., 0., 0., 0., 0., 0., 0., 2., 0., 0., 0., 0., 0.,
          0., 0., 0., 3., 0., 2., 2., 3., 1., 2., 0., 0., 0., 0., 0., 0.,
          2., 2., 2., 2., 3., 2., 3., 0., 3., 2., 2., 3., 2., 0., 2., 3.,
          2., 1., 3., 2., 3., 2., 3., 0., 2., 0., 2., 0., 3., 0., 2., 2.,
          3., 0., 3., 2., 0., 3., 0., 3., 0., 0., 0., 2., 2., 2., 2., 3.,
          2., 3., 3., 3., 2., 2., 2., 2., 0., 2., 3., 2., 2., 3., 2., 3.,
          2., 3., 1., 2., 2., 0., 2., 2., 3., 2., 3., 2., 2., 0., 3., 3.,
          1., 2., 2., 0., 0., 0., 0., 0., 0., 3., 0., 0., 2., 3., 3., 2.,
          3., 2., 0., 2., 3., 2., 3., 2., 0., 2., 3., 3., 0., 0., 0., 0.,
          3., 3., 0., 0., 3., 0., 0., 0., 0., 0., 3., 3., 3., 3., 3., 0.,
          3., 2., 0., 0., 0., 3., 0., 0., 2., 2., 2., 2., 2., 0., 2., 0.,
          2., 3., 0., 3., 3., 2., 2., 2., 3., 2., 3., 2., 2., 3., 0., 3.,
          3., 3., 0., 0., 0., 0., 0., 0., 0., 3., 2., 0., 0., 2., 3., 2.,
          2., 2., 3., 1., 0., 0., 0., 1., 1., 2., 0., 0., 2., 2., 3., 0.,
          3., 0., 3., 1., 1., 3., 2., 3., 2., 3., 2., 2., 0., 3., 3., 3.,
          3., 3., 3., 0., 0., 0., 0., 0., 0., 0., 0., 0., 0., 0., 0., 0.,
          0., 3., 3., 2., 2., 0., 0., 0., 0., 0., 0., 0., 3., 3., 3., 0.,
          2., 2., 3., 0., 0., 0., 0., 0., 0., 0., 2., 2., 3., 0., 0., 2.,
          2., 0., 2., 3., 2., 3., 2., 3., 2., 3., 3., 2., 0., 0., 0., 0.,
          0., 3., 2., 3., 3., 0., 0., 3., 3., 2., 0., 0., 2., 0., 3., 2.,
          2., 0., 0., 0., 2., 2., 0., 0., 0., 0., 0., 0., 0., 2., 3., 2.,
          3., 1., 0., 2., 2., 2., 2., 2., 2., 2., 0., 0., 0., 0., 0., 0.,
          0., 0., 0., 0., 0., 0., 0., 0., 0., 2., 0., 0., 0., 0., 0., 0.,
          0., 0., 0., 0., 0., 0., 0., 0., 0., 0., 0., 0., 0., 0., 0., 0.,
          0., 0., 0., 0., 0., 0., 0., 0., 0., 0. ]
